
\data\
ngram 1=473
ngram 2=855
ngram 3=774


\1-grams:
-1.1871 </s> 0.0000
-99.0000 <s> -0.7461
-1.7739 A -0.8711
-3.0332 ABRIR -0.7692
-3.5103 ACEITE -0.2958
-3.1124 ACEPTAR -0.6698
-2.9663 ACOGíAN -0.8446
-2.7322 ACOMPASADO -1.0750
-2.7322 ACOMPAñáNDOLA -1.0784
-3.5103 ACTUALIZAR -0.3009
-3.0332 ACúSTICO -0.7755
-3.0332 ADELANTE -0.7692
-3.2093 ADEMáS -0.5681
-2.8114 ADHERíAN -0.9926
-2.8571 ADORNABA -0.9400
-2.8114 ADORNOS -0.9661
-3.1124 ADQUIRIR -0.6885
-3.0332 AGRANDADOS -0.7730
-2.9083 AGRUPáBANSE -0.9011
-2.9663 AGUAS -0.8446
-2.7322 AHORA -0.8110
-3.0332 AISLAMIENTO -0.7777
-2.4892 AL -0.7765
-3.2093 ALGO -0.5922
-3.5103 ALIñO -0.2671
-2.8571 ALLá -0.9203
-2.9083 ALREDEDOR -0.8691
-2.8571 ALTO -0.9490
-3.0332 ALTURA -0.7777
-3.0332 AMANECE -0.7753
-2.7322 AMARILLA -1.0452
-3.0332 AMARILLENTO -0.7692
-2.7322 AMBIENTE -1.0777
-2.8571 AMPOLLAS -0.9536
-3.0332 ANIMAR -0.7682
-2.8571 ANTES -0.9536
-2.8114 APARECER -0.9921
-3.2093 AQUí -0.6013
-2.8571 ARCHIPIéLAGO -0.9536
-2.9663 ARCOS -0.8112
-3.0332 ARTIFICIAL -0.7777
-2.7700 ARTIFICIALES -1.0407
-2.8571 ASIENTOS -0.9536
-2.7322 ATMóSFERA -1.0452
-3.1124 AUTENTIFICAR -0.6986
-3.2093 AYUDAR -0.5947
-2.3964 AZUL -0.9256
-2.9663 BALANCEO -0.8408
-2.9663 BAMBú -0.8446
-2.8571 BANDEJA -0.9444
-2.9083 BANDEJAS -0.8739
-3.5103 BISAGRA -0.3009
-2.8571 BISELADOS -0.9251
-2.8114 BLANCO -0.9993
-2.6353 BLANCURA -0.8685
-2.8571 BLANQUEABAN -0.9522
-2.8571 BOTONES -0.9536
-3.1124 BOTóN -0.6986
-3.0332 BUENA -0.7777
-3.2093 BUENOS -0.6018
-2.9663 BURBUJEO -0.8112
-2.9083 BUSTOS -0.8691
-2.9663 CABEZAS -0.8446
-3.0332 CAJA -0.7683
-2.6073 CAMAREROS -0.9277
-2.7322 CAMBIO -1.0452
-3.1124 CAMIóN -0.6986
-3.0332 CAMPESTRE -0.7721
-3.0332 CAMPO -0.7777
-2.8571 CANALIZOS -0.9203
-3.1124 CARA -0.6698
-3.2093 CARO -0.5931
-3.0332 CARRO -0.7772
-3.1124 CARTERA -0.6976
-2.8114 CASI -0.9993
-3.5103 CASO -0.2718
-3.0332 CATORCE -0.7692
-3.0332 CENTíMETROS -0.7490
-2.9083 CERCANAS -0.8957
-2.8114 CERRABAN -0.9900
-3.0332 CERRAR -0.7442
-3.0332 CERáMICO -0.7442
-2.8571 CHAQUETA -0.9525
-2.8571 CHAROLADO -0.9251
-3.0332 CHINCHETA -0.7490
-2.9083 CHOQUE -0.8691
-3.0332 CHULETA -0.7490
-3.2093 CIENTO -0.6018
-2.9663 CIERTO -0.8442
-3.5103 CINCO -0.3009
-2.8114 CINCUENTA -0.7107
-2.8114 COBRIZAS -0.9993
-2.9083 COLA -0.8739
-3.1124 COLECCIóN -0.6650
-2.9083 COLOREADO -0.8957
-2.9663 COLUMNA -0.8446
-2.0190 COMO -1.1927
-2.9083 COMPACTAS -0.9021
-1.7432 CON -1.0595
-2.9083 CONFUNDIDOS -0.8952
-2.1986 CONTADOS -1.5836
-3.0332 CONTRAHECHO -0.7490
-3.1124 CONTRASEñA -0.6986
-2.9083 CONVERSACIONES -0.8952
-2.8571 CORROS -0.9536
-2.8571 CORTA -0.9536
-3.5103 COSA -0.2671
-3.5103 COSAS -0.2950
-2.9663 CRETONA -0.8353
-2.8114 CRIADAS -0.9993
-2.3800 CRISTALES -0.9773
-2.8571 CUANDO -0.9437
-3.1124 CUARENTA -0.6983
-2.9083 CUATRO -0.6519
-2.9083 CUBIERTOS -0.9017
-2.9083 CUERDAS -0.8739
-3.2093 CUERPO -0.6011
-3.0332 CULíN -0.7442
-2.7700 CUYAS -1.0407
-2.8114 CíRCULOS -0.9708
-3.5103 DAR -0.3008
-1.1238 DE -0.9038
-3.2093 DEBES -0.6018
-3.0332 DECIR -0.7721
-2.8571 DECORACIóN -0.9437
-3.0332 DEDO -0.7764
-2.8114 DEJABA -0.9993
-2.0405 DEL -0.8639
-3.0332 DERECHA -0.7490
-3.2093 DESCENDíAN -0.6018
-2.9083 DESLIZABAN -0.8691
-2.9663 DESTACáBANSE -0.8431
-3.0332 DIEZ -0.7777
-3.2093 DIJO -0.6018
-3.1124 DIO -0.6948
-3.0332 DOCE -0.7777
-2.9083 DOCENA -0.8691
-3.2093 DONANTE -0.5681
-2.5103 DONDE -1.0157
-2.8571 DORADOS -0.9536
-2.9663 DOS -0.6011
-3.1124 DOTE -0.6982
-2.7700 DíA -1.0074
-3.2093 DíAS -0.5729
-1.6210 EL -0.8357
-2.8571 ELéCTRICAS -0.6947
-2.9663 EMBADURNAR -0.8159
-2.8114 EMPAñáNDOLOS -0.9921
-1.6500 EN -1.0639
-2.7700 ENCUADRABAN -1.0309
-2.8571 ENREJADOS -0.9251
-3.5103 ENSALADA -0.3009
-2.4690 ERA -0.8985
-3.0332 ERAN -0.7676
-3.2093 ERIZOS -0.5681
-2.6353 ES -0.6313
-2.9663 ESBELTA -0.8159
-3.0332 ESCASEZ -0.7442
-3.0332 ESCRITURA -0.7777
-2.1986 ESPACIO -1.6100
-2.9663 ESPECIE -0.8112
-3.0332 ESPOSA -0.7767
-2.5809 ESTABA -0.9514
-2.8114 ESTABAN -0.9993
-2.4496 ESTE -0.9191
-2.8571 ESTOS -0.9536
-3.0332 EVOCACIóN -0.7777
-3.2093 EXCLUSIVO -0.5729
-2.4496 EXTERIOR -1.0457
-3.0332 FATIGADOS -0.7730
-2.8571 FEMENINOS -0.9444
-2.7322 FIELES -1.0693
-2.9663 FLOREADA -0.8446
-2.8571 FLOTABA -0.9522
-2.9083 FONDO -0.8991
-2.9663 FORMABAN -0.8446
-2.8571 FORMADA -0.9203
-2.7322 FORMADOS -1.0740
-3.2093 FRASES -0.6018
-3.2093 FRíO -0.6018
-3.2093 FUERTE -0.5729
-2.9083 FUMABAN -0.9026
-3.2093 FéMUR -0.5729
-2.9083 GEMIDOS -0.8691
-2.9663 GERMANOS -0.8362
-2.7322 GOLFOS -1.0702
-3.0332 GOMA -0.7742
-3.2093 GORJEOS -0.5681
-3.5103 GOZNE -0.3000
-3.2093 GRABAR -0.5954
-3.0332 GRAN -0.7777
-2.7700 GRISáCEO -1.0074
-2.9663 GRUPOS -0.8112
-3.0332 GUSTE -0.7490
-2.7322 HABANO -1.0702
-3.5103 HACE -0.3009
-3.0332 HACIA -0.7777
-3.5103 HAY -0.2982
-3.2093 HAZTE -0.6018
-2.7700 HOJAS -1.0407
-2.8571 HORA -0.9536
-3.2093 HUESOS -0.5992
-2.8571 HUMANO -0.9251
-2.8571 HUMEABA -0.9444
-2.8114 HUMEDAD -0.9985
-2.7322 HUMO -1.0452
-2.9663 HUSMEAR -0.8346
-3.0332 HUíAN -0.7442
-2.9663 HúMEDO -0.8391
-2.8571 IGUAL -0.9469
-2.7700 INFLAMADAS -1.0316
-2.8114 INMEDIATO -0.9993
-3.0332 INSTALó -0.7777
-3.1124 INTERNET -0.4478
-2.8571 INVERNáCULO -0.9437
-2.4690 INVIERNO -1.0301
-2.7322 INVISIBLE -1.0784
-2.9663 ISLAS -0.8159
-2.9663 JARABES -0.8362
-2.5809 JARDíN -0.9199
-3.0332 JOVEN -0.7490
-1.6441 LA -0.8649
-2.8114 LABIOS -0.9993
-2.8114 LADO -0.9661
-2.9663 LAQUEADA -0.8446
-3.2093 LARGOS -0.5981
-1.8157 LAS -0.9483
-3.5103 LE -0.3009
-2.9083 LENTITUD -0.9026
-2.9663 LENTO -0.8446
-3.2093 LEVANTARSE -0.6018
-2.9663 LICORES -0.8159
-2.8114 LIGERAMENTE -0.9993
-2.7322 LIMPIO -1.0732
-3.5103 LLAMAR -0.2996
-2.9083 LLEGABAN -0.9026
-3.1124 LLENA -0.6698
-3.5103 LLEVAR -0.3009
-2.3964 LO -0.9623
-3.5103 LOCOMOTORA -0.2718
-1.4912 LOS -1.0205
-3.0332 LUEGO -0.7708
-2.9663 LUMINOSOS -0.8112
-2.6353 LíNEAS -0.8959
-2.7322 MADERA -0.8120
-3.0332 MADRUGAR -0.7777
-3.0332 MADURILLA -0.7708
-3.0332 MAGO -0.7770
-3.2093 MANO -0.5961
-2.9663 MANTECA -0.8362
-3.2093 MANTO -0.6007
-3.2093 MAR -0.6018
-2.6652 ME -0.7246
-2.8114 MECáNICA -0.9708
-2.9083 MEDIA -0.9026
-3.5103 MEDIOAMBIENTE -0.3000
-2.9663 MERMELADAS -0.8346
-2.8571 MESA -0.9400
-2.6353 MESAS -1.1421
-3.0332 METIó -0.7683
-3.5103 METáLICA -0.2718
-2.8571 MEZCLáBASE -0.9469
-2.9663 MI -0.6013
-3.0332 MIDE -0.7775
-3.2093 MIGUEL -0.6018
-2.9663 MINERALES -0.8446
-2.5326 MISMO -0.9644
-2.8114 MISMOS -0.9993
-2.1986 MOVIESEN -1.6030
-2.9663 MOVíASE -0.8446
-3.0332 MUCHO -0.7777
-2.9083 MUJERES -0.8941
-3.0332 MUNDO -0.7777
-2.5103 MUY -0.6796
-2.1881 MáS -0.7837
-2.9083 MúSICOS -0.9026
-3.3343 NADA -0.2354
-3.5103 NADIE -0.3009
-2.9083 NEGRAS -0.8941
-3.2093 NIñA -0.6018
-2.8114 NIñOS -0.9988
-2.5809 NO -0.6854
-3.2093 NUEVE -0.5681
-3.2093 NúMERO -0.5729
-2.6652 O -0.8741
-2.9083 OBLICUAS -0.9026
-2.8114 OCULTáNDOSE -0.9974
-2.8114 OCUPADOS -0.9948
-2.6652 OJEDA -0.8450
-2.7700 OJOS -0.7485
-3.0332 ONCE -0.7777
-3.5103 OPERATIVO -0.2718
-2.7322 OPIO -1.0500
-2.7322 ORIENTAL -1.0713
-2.8114 ORO -0.9708
-2.9663 OTRA -0.8446
-2.8114 OTRO -0.9993
-3.2093 OíDO -0.5729
-3.0332 OíR -0.7708
-3.0332 PADRE -0.5436
-2.8571 PALMERAS -0.9203
-2.9663 PAN -0.8446
-3.0332 PAPEL -0.7702
-2.2203 PARA -0.8616
-3.0332 PARECER -0.7777
-2.5809 PARECíA -0.7667
-2.7700 PARECíAN -1.0407
-2.5809 PARED -0.9463
-2.8571 PAREDES -0.9251
-2.7700 PARRAS -1.0407
-2.9083 PARTE -0.9015
-3.5103 PARTES -0.2671
-2.8571 PASABAN -0.9463
-2.9663 PASANDO -0.8112
-2.9083 PASEANTES -0.9026
-2.1986 PASOS -1.6100
-3.5103 PELELE -0.2921
-2.7322 PENíNSULAS -1.0784
-3.0332 PEQUEñA -0.7742
-2.8571 PEQUEñOS -0.9524
-2.5561 PERFUME -0.9395
-2.8114 PERO -0.9921
-3.0332 PERSONA -0.7753
-2.6652 PERSONAS -0.8719
-2.8114 PERSPECTIVA -0.9986
-3.0332 PESAR -0.7442
-2.6353 PIANO -0.8595
-2.8571 PICTóRICO -0.9203
-2.7700 PILASTRA -0.7617
-2.8571 PLANOS -0.9203
-2.8571 PLANTAS -0.9514
-2.7700 PLENA -1.0402
-2.8571 PLIEGOS -0.9251
-1.9249 POR -0.9715
-3.5103 PORNOGRAFíA -0.2718
-2.9083 PRESENTE -0.8691
-2.8571 PRIMERO -0.9529
-2.7322 PROMONTORIOS -1.0452
-3.0332 PUEDE -0.7777
-3.2093 PUEDES -0.6018
-3.1124 PULSA -0.6885
-3.2093 PáJARO -0.5922
-3.2093 PáJAROS -0.5729
-2.7322 PéNDULO -1.0500
-1.8620 QUE -0.8486
-3.0332 QUEDABA -0.7715
-3.0332 QUINCE -0.7490
-3.0332 QUIéN -0.7777
-3.2093 QUé -0.6011
-3.5103 RAPIDAMENTE -0.2905
-3.0332 RECIPIENTE -0.7777
-2.5809 RECTáNGULOS -0.9198
-2.1986 REDUCIDO -1.6049
-2.6652 REFLEJO -0.8728
-2.7322 REGULAR -1.0702
-2.8114 REGULARIDAD -0.9993
-2.7700 REPOSARSE -1.0316
-2.7322 RESPALDOS -1.0649
-3.2093 RESPLANDOR -0.5681
-2.7700 RETAZOS -1.0074
-3.0332 RIGIDEZ -0.7742
-2.9083 RISAS -0.8691
-3.0332 ROBARON -0.7490
-2.7322 RODILLAS -1.0500
-3.5103 RONCA -0.2969
-2.8571 ROSA -0.9536
-2.8114 ROSADAS -0.9993
-2.9663 RUBIAS -0.8112
-2.5561 RUBIOS -0.9431
-3.2093 SABOR -0.6007
-3.0332 SALONES -0.7777
-3.2093 SALVAR -0.6018
-2.5809 SALóN -0.9530
-3.2093 SANGRE -0.6018
-2.0405 SE -1.1862
-2.8571 SEDA -0.9536
-2.9663 SEGUIR -0.8346
-2.9083 SEGUNDO -0.9019
-2.9083 SEGUíAN -0.9008
-3.5103 SEIS -0.3006
-3.1124 SELLOS -0.6976
-2.9083 SEMEJANTES -0.8957
-3.2093 SESENTA -0.5931
-3.0332 SEñALA -0.7702
-3.0332 SEñORA -0.7767
-2.8114 SEñORAS -0.9708
-2.1986 SI -1.6088
-2.9083 SIEMPRE -0.8739
-3.5103 SIETE -0.2718
-2.9083 SILENCIOSAS -0.9022
-2.9663 SILLONES -0.8112
-3.0332 SIMPáTICA -0.7490
-3.5103 SISTEMA -0.3009
-2.7322 SITUACIóN -1.0784
-2.3343 SOBRE -0.8802
-2.7322 SORTEANDO -1.0649
-2.8114 SOSTENIDOS -0.9948
-2.9083 SOñOLIENTA -0.8739
-2.6652 SU -0.7259
-3.2093 SUBIRLAS -0.5947
-3.5103 SUELE -0.3009
-3.2093 SUENA -0.6005
-3.0332 SUJETA -0.7676
-2.2799 SUS -0.8774
-3.2093 SUSURRó -0.6018
-3.0332 SóLO -0.7772
-2.7322 TABACO -1.0784
-3.0332 TAMAñO -0.7490
-2.8114 TAMBIéN -0.9993
-2.8571 TAPIZADOS -0.9203
-2.5561 TARDE -0.9457
-2.9083 TARIMA -0.9026
-2.8571 TAZA -0.9203
-2.9663 TE -0.6015
-2.6974 TECHO -0.8153
-2.9083 TECLEOS -0.8991
-2.9663 TEMBLABA -0.8372
-3.0332 TEMPRANO -0.7490
-3.0332 TENDIDOS -0.7442
-3.1124 TENER -0.6890
-2.7700 TERCIOPELO -1.0122
-2.9663 TEñIDAS -0.8112
-3.2093 TIENEN -0.5954
-3.1124 TIENES -0.6930
-2.8571 TODO -0.9531
-3.5103 TODOS -0.2718
-2.6353 TORNO -1.1421
-2.9663 TOSTADO -0.8446
-3.0332 TRECE -0.7777
-3.1124 TREINTA -0.6986
-3.5103 TRES -0.3009
-3.1124 TU -0.6986
-2.8114 TURBIOS -0.9948
-2.4496 Té -0.8900
-2.7322 TéRMINO -1.0784
-1.8201 UN -0.9195
-2.0052 UNA -0.7491
-2.5561 UNAS -0.9760
-2.9083 UNIFORMADOS -0.9013
-2.8571 UNIFORME -0.9203
-3.2093 UNO -0.5681
-2.7322 UNOS -0.8120
-3.1124 USUARIO -0.6900
-2.8571 VACíA -0.9453
-3.2093 VALE -0.6018
-3.5103 VAMOS -0.2937
-3.0332 VECINOS -0.7490
-3.1124 VEINTE -0.6986
-3.1124 VEINTIUNO -0.6986
-3.0332 VELLUDO -0.7490
-3.2093 VEN -0.6018
-2.9663 VENIR -0.8411
-2.6353 VENTANA -0.8787
-2.9663 VENTANACON -0.8446
-2.5809 VENTANAS -0.9186
-2.8114 VENTOSAS -0.9661
-2.8114 VER -0.9895
-2.4690 VERDE -0.9015
-3.0332 VETE -0.7777
-2.9083 VEZ -0.8979
-3.2093 VIDAS -0.5729
-2.8571 VIDRIERA -0.9203
-3.5103 VINAGRE -0.2718
-3.0332 VINO -0.7490
-2.6652 VIOLINES -0.8706
-3.0332 VISUAL -0.7442
-3.2093 VOLANDO -0.5729
-2.8114 VOLVER -0.9926
-3.5103 VOY -0.2937
-1.6908 Y -0.8393
-3.1124 ZAPATOS -0.6900
-3.0332 áNFORA -0.7771
-2.6073 éL -0.9283

\2-grams:
-1.8976 <s> A -0.8234
-2.1987 <s> ADEMáS 0.0000
-2.1987 <s> AL -0.5441
-1.6344 <s> AMARILLA 0.0000
-1.7727 <s> CAMAREROS -0.6780
-1.0226 <s> COMO -0.8369
-1.8307 <s> CUBIERTOS 0.0000
-1.6758 <s> DE -1.0333
-1.7215 <s> DEJABA 0.0000
-1.8307 <s> DEL -0.8552
-1.9768 <s> DIEZ 0.0000
-1.9768 <s> DOS -0.3522
-1.3536 <s> EL -0.6469
-1.7215 <s> EN -0.5079
-2.0737 <s> ES -0.3979
-1.7215 <s> ESTABAN 0.0000
-1.7727 <s> FLOTABA 0.0000
-2.1987 <s> HAZTE 0.0000
-1.6758 <s> INFLAMADAS 0.0000
-1.9768 <s> INSTALó 0.0000
-1.3970 <s> LA -0.6836
-1.7727 <s> LAS -0.9214
-2.6758 <s> LLAMAR 0.0000
-1.2444 <s> LOS -0.8348
-1.9768 <s> MADERA -0.5673
-1.8976 <s> MANTECA 0.0000
-1.8307 <s> MEDIA 0.0000
-1.8976 <s> MI 0.0000
-2.1987 <s> MIGUEL 0.0000
-1.8976 <s> MOVíASE 0.0000
-2.1987 <s> MáS -0.5746
-1.7215 <s> NIñOS 0.0000
-1.8976 <s> NO -0.3010
-1.7727 <s> PARA -0.6118
-1.8307 <s> POR -0.7422
-1.7215 <s> QUE -0.9595
-1.9768 <s> QUIéN 0.0000
-2.1987 <s> SESENTA 0.0000
-1.9768 <s> SEñALA 0.0000
-1.8976 <s> SILLONES 0.0000
-1.6344 <s> SORTEANDO 0.0000
-1.9768 <s> SU -0.6154
-1.9768 <s> SUJETA 0.0000
-1.6344 <s> SUS -0.6645
-1.9768 <s> SóLO 0.0000
-1.7727 <s> TODO 0.0000
-1.8307 <s> UN -0.2808
-1.7727 <s> UNA -0.9053
-1.8307 <s> UNAS -0.7035
-2.1987 <s> UNO 0.0000
-2.6758 <s> VAMOS 0.0000
-2.0737 <s> VEINTE 0.0000
-1.9768 <s> VETE 0.0000
-2.1987 <s> Y -0.5784
-2.0899 A ACTUALIZAR 0.0000
-1.1357 A APARECER 0.0000
-1.2448 A CUERDAS 0.0000
-2.0899 A DAR 0.0000
-1.6128 A INTERNET -0.3010
-0.6427 A LA -0.8049
-1.3118 A LAS -0.8207
-0.9438 A LOS -0.8571
-1.3118 A OTRA 0.0000
-1.1868 A PARED -0.6990
-1.3909 A PESAR 0.0000
-1.3909 A PILASTRA -0.5441
-1.6128 A SALVAR 0.0000
-1.3909 A UNA -0.7482
-1.2448 A éL -0.6726
-0.0792 ABRIR Y -0.7635
-0.3010 ACEITE POR 0.0000
-0.0969 ACEPTAR </s> 0.0000
-0.0669 ACOGíAN GRUPOS 0.0000
-0.0378 ACOMPASADO COMO -0.9987
-0.0378 ACOMPAñáNDOLA FIELES 0.0000
-0.3010 ACTUALIZAR RAPIDAMENTE 0.0000
-0.0792 ACúSTICO PARA -0.7258
-0.0792 ADELANTE Y -0.7635
-0.1249 ADEMáS DE -0.5996
-0.0458 ADHERíAN A -0.9475
-0.0512 ADORNABA LOS -0.9388
-0.0458 ADORNOS DE -0.9927
-0.0969 ADQUIRIR EL -0.6890
-0.0792 AGRANDADOS POR -0.6173
-0.0580 AGRUPáBANSE SOBRE -0.7995
-0.0669 AGUAS MINERALES 0.0000
-0.6368 AHORA MISMO -0.5315
-0.2109 AHORA VACíA 0.0000
-0.0792 AISLAMIENTO ACúSTICO 0.0000
-0.9031 AL LEVANTARSE 0.0000
-0.4260 AL OTRO 0.0000
-0.5351 AL PRESENTE 0.0000
-1.3802 AL SEIS 0.0000
-0.1249 ALGO EN -0.5936
-0.3010 ALIñO DE 0.0000
-0.0512 ALLá DE -0.9478
-0.0580 ALREDEDOR DE -0.8801
-0.0512 ALTO POR -0.9108
-0.0792 ALTURA ERAN 0.0000
-0.0792 AMANECE MáS -0.7314
-0.0378 AMARILLA DE -1.0703
-0.0792 AMARILLENTO Y -0.7635
-0.0378 AMBIENTE ERA -0.8129
-0.0512 AMPOLLAS ELéCTRICAS 0.0000
-0.0792 ANIMAR LA -0.7650
-0.0512 ANTES CUANDO 0.0000
-0.0458 APARECER CON -0.9678
-0.1249 AQUí AHORA -0.4881
-0.0512 ARCHIPIéLAGO HUMANO 0.0000
-0.0669 ARCOS DE -0.8329
-0.0792 ARTIFICIAL RIGIDEZ 0.0000
-0.0414 ARTIFICIALES CUYAS 0.0000
-0.0512 ASIENTOS TAPIZADOS 0.0000
-0.0378 ATMóSFERA DE -1.0703
-0.0969 AUTENTIFICAR TU 0.0000
-0.1249 AYUDAR A -0.5913
-0.6021 AZUL DE -0.8859
-0.4472 AZUL GRISáCEO 0.0000
-0.5441 AZUL Y -0.9306
-0.0669 BALANCEO UNA -0.8089
-0.0669 BAMBú FORMABAN 0.0000
-0.0512 BANDEJA EN -0.9314
-0.0580 BANDEJAS </s> 0.0000
-0.3010 BISAGRA METáLICA 0.0000
-0.0512 BISELADOS </s> 0.0000
-0.0458 BLANCO TAMBIéN 0.0000
-0.4260 BLANCURA DE -0.8279
-0.3010 BLANCURA UNIFORME 0.0000
-0.0512 BLANQUEABAN SOBRE -0.8337
-0.0512 BOTONES DORADOS 0.0000
-0.0969 BOTóN ACEPTAR 0.0000
-0.0792 BUENA CHULETA 0.0000
-0.1249 BUENOS DíAS 0.0000
-0.0669 BURBUJEO DE -0.8066
-0.0580 BUSTOS DE -0.8974
-0.0669 CABEZAS RUBIAS 0.0000
-0.0792 CAJA EN -0.6303
-0.3854 CAMAREROS AGRUPáBANSE 0.0000
-0.3274 CAMAREROS RUBIOS -0.7169
-0.0378 CAMBIO DE -1.0703
-0.0969 CAMIóN TIENES 0.0000
-0.0792 CAMPESTRE QUE -0.7281
-0.0792 CAMPO VISUAL 0.0000
-0.0512 CANALIZOS DE -0.9478
-0.0969 CARA </s> 0.0000
-0.1249 CARO Y -0.5933
-0.0792 CARRO ME -0.6154
-0.0969 CARTERA MUY -0.6198
-0.0458 CASI MECáNICA 0.0000
-0.3010 CASO </s> 0.0000
-0.0792 CATORCE Y -0.7635
-0.0792 CENTíMETROS </s> 0.0000
-0.0580 CERCANAS A -0.8776
-0.0458 CERRABAN LA -0.9761
-0.0792 CERRAR DE -0.7741
-0.0792 CERáMICO DE -0.7741
-0.0512 CHAQUETA AZUL -0.8081
-0.0512 CHAROLADO </s> 0.0000
-0.0792 CHINCHETA </s> 0.0000
-0.0580 CHOQUE DE -0.8974
-0.0792 CHULETA </s> 0.0000
-0.1249 CIENTO VOLANDO 0.0000
-0.0669 CIERTO REFLEJO -0.6232
-0.3010 CINCO SIETE 0.0000
-0.4393 CINCUENTA </s> 0.0000
-0.3424 CINCUENTA CENTíMETROS 0.0000
-0.0458 COBRIZAS ADHERíAN 0.0000
-0.0580 COLA </s> 0.0000
-0.0969 COLECCIóN DE -0.6958
-0.0580 COLOREADO A -0.7909
-0.0669 COLUMNA ESBELTA 0.0000
-1.2109 COMO DOTE 0.0000
-0.7715 COMO EL -1.0513
-0.2109 COMO SI 0.0000
-1.0348 COMO UNA -0.3960
-0.0580 COMPACTAS LíNEAS -0.6532
-1.1461 CON ADORNOS 0.0000
-1.3222 CON CIERTO 0.0000
-1.1461 CON CíRCULOS 0.0000
-1.4014 CON EL -0.7657
-0.9864 CON LA -0.8401
-1.2553 CON LENTITUD 0.0000
-0.4983 CON LOS -1.5294
-1.0590 CON PERFUME -0.7035
-1.1461 CON REGULARIDAD 0.0000
-1.2553 CON RISAS 0.0000
-0.0580 CONFUNDIDOS CON -0.8783
-0.0107 CONTADOS </s> 0.0000
-0.0792 CONTRAHECHO </s> 0.0000
-0.0969 CONTRASEñA PULSA 0.0000
-0.0580 CONVERSACIONES CON -0.8783
-0.0512 CORROS FEMENINOS 0.0000
-0.0512 CORTA CHAQUETA 0.0000
-0.3010 COSA DE 0.0000
-0.3010 COSAS QUE 0.0000
-0.0669 CRETONA EN -0.8043
-0.0458 CRIADAS COBRIZAS 0.0000
-0.5593 CRISTALES BISELADOS 0.0000
-0.5082 CRISTALES LAS -0.9629
-0.5082 CRISTALES LIGERAMENTE 0.0000
-0.0512 CUANDO EL -0.9342
-0.0969 CUARENTA CINCUENTA -0.5027
-0.9542 CUATRO CINCO 0.0000
-0.1761 CUATRO VENTANAS -0.6690
-0.0580 CUBIERTOS AL -0.7533
-0.0580 CUERDAS </s> 0.0000
-0.1249 CUERPO ES -0.5229
-0.0792 CULíN DE -0.7741
-0.0414 CUYAS HOJAS 0.0000
-0.0458 CíRCULOS </s> 0.0000
-0.3010 DAR NADA 0.0000
-2.7340 DE ACEITE 0.0000
-1.9558 DE BAMBú 0.0000
-1.8889 DE BANDEJAS 0.0000
-1.8889 DE COLA 0.0000
-1.9558 DE COLUMNA 0.0000
-1.8889 DE COMPACTAS 0.0000
-1.8309 DE CORTA 0.0000
-1.9558 DE CUATRO -0.3680
-2.7340 DE ENSALADA 0.0000
-1.8309 DE ESTE -0.7868
-1.8309 DE ESTOS 0.0000
-1.9558 DE FLOREADA 0.0000
-1.9558 DE GERMANOS 0.0000
-2.0350 DE GOMA 0.0000
-2.2569 DE GRABAR 0.0000
-2.0350 DE GRAN 0.0000
-1.6926 DE HABANO 0.0000
-1.6926 DE HUMO 0.0000
-1.8309 DE INVERNáCULO 0.0000
-1.4118 DE INVIERNO 0.0000
-1.6926 DE INVISIBLE 0.0000
-1.9558 DE JARABES 0.0000
-1.4118 DE LA -0.8451
-1.0712 DE LAS -0.7734
-1.1542 DE LOS -0.8347
-2.2569 DE MAR 0.0000
-1.8889 DE MUJERES 0.0000
-1.8889 DE MúSICOS 0.0000
-2.7340 DE NADA 0.0000
-1.6201 DE OJEDA 0.0000
-2.0350 DE OJOS -0.5441
-1.6926 DE OPIO 0.0000
-1.7798 DE ORO 0.0000
-2.0350 DE PARECER 0.0000
-1.8309 DE PARED -0.6990
-1.8309 DE PEQUEñOS 0.0000
-1.9558 DE PERSONAS -0.6232
-2.0350 DE PILASTRA -0.5441
-2.2569 DE PáJAROS 0.0000
-2.2569 DE QUé 0.0000
-2.2569 DE SANGRE 0.0000
-1.8309 DE SEDA 0.0000
-2.1319 DE SELLOS 0.0000
-1.6926 DE SITUACIóN 0.0000
-2.0350 DE SU -0.6154
-1.5579 DE SUS -0.7114
-1.7340 DE TERCIOPELO 0.0000
-2.7340 DE TODOS 0.0000
-1.8309 DE Té -0.7868
-1.2868 DE UN -0.8867
-1.9558 DE UNA -0.8089
-1.7340 DE UNAS -0.7169
-1.8889 DE UNOS -0.5673
-1.8889 DE VENTANA -0.6532
-2.7340 DE VINAGRE 0.0000
-2.0350 DE VINO 0.0000
-0.1249 DEBES SUBIRLAS 0.0000
-0.0792 DECIR QUE -0.7561
-0.0512 DECORACIóN EL -0.8994
-0.0792 DEDO LO -0.6927
-0.0458 DEJABA VER 0.0000
-1.3490 DEL CUERPO 0.0000
-1.0479 DEL EXTERIOR -0.4191
-0.9810 DEL FONDO 0.0000
-1.1271 DEL JARDíN -0.6368
-1.1271 DEL MUNDO 0.0000
-0.9810 DEL PIANO -0.6532
-0.9810 DEL SEGUNDO 0.0000
-0.7469 DEL TECHO 0.0000
-1.0479 DEL Té -0.7259
-0.0792 DERECHA </s> 0.0000
-0.1249 DESCENDíAN GORJEOS 0.0000
-0.0580 DESLIZABAN DE -0.8974
-0.0669 DESTACáBANSE SOBRE -0.7579
-0.0792 DIEZ ONCE 0.0000
-0.1249 DIJO BUENOS 0.0000
-0.0969 DIO COMO -0.6714
-0.0792 DOCE TRECE 0.0000
-0.0580 DOCENA DE -0.8974
-0.1249 DONANTE DE -0.5996
-0.4191 DONDE ESTABA -0.6990
-0.2808 DONDE UNA -1.0103
-0.0512 DORADOS PASABAN 0.0000
-0.9031 DOS CUATRO 0.0000
-0.2041 DOS SALONES 0.0000
-0.0969 DOTE UNOS -0.5393
-0.0414 DíA DE -1.0242
-0.1249 DíAS </s> 0.0000
-1.2066 EL AMBIENTE 0.0000
-1.2480 EL AZUL -0.8495
-1.6459 EL BOTóN 0.0000
-1.4698 EL BURBUJEO 0.0000
-1.6459 EL CAMIóN 0.0000
-1.5490 EL CAMPO 0.0000
-1.2066 EL DE -1.0561
-1.5490 EL DEDO 0.0000
-1.7709 EL FRíO 0.0000
-1.7709 EL FéMUR 0.0000
-1.2066 EL JARDíN -0.6690
-1.5490 EL MAGO 0.0000
-2.2480 EL MEDIOAMBIENTE 0.0000
-1.6459 EL PADRE -0.3310
-1.4698 EL PAN 0.0000
-1.5490 EL PAPEL 0.0000
-1.4698 EL PERFUME -0.6803
-1.3449 EL PRIMERO 0.0000
-1.4029 EL REFLEJO -0.6301
-1.2937 EL SALóN -0.6990
-2.2480 EL SISTEMA 0.0000
-1.3449 EL Té -0.7868
-0.9258 EL VERDE 0.0000
-0.3010 ELéCTRICAS DEL -0.6924
-0.5229 ELéCTRICAS DESCENDíAN 0.0000
-0.0669 EMBADURNAR </s> 0.0000
-0.0458 EMPAñáNDOLOS CON -0.9678
-1.2900 EN ALTO 0.0000
-0.9144 EN EL -0.9719
-1.1517 EN ESTE -0.8274
-2.1931 EN INTERNET 0.0000
-1.0792 EN LA -0.8401
-1.1931 EN LOS -1.0099
-1.7160 EN MANO 0.0000
-1.1931 EN PLENA 0.0000
-1.7160 EN SU -0.5119
-1.0470 EN TORNO 0.0000
-0.5399 EN UN -1.1426
-1.3480 EN VENTANA -0.6532
-0.0414 ENCUADRABAN EL -1.0161
-0.0512 ENREJADOS </s> 0.0000
-0.3010 ENSALADA SUELE 0.0000
-0.6812 ERA MADURILLA 0.0000
-0.6812 ERA MUY -0.6767
-0.3388 ERA MáS -0.9688
-0.0792 ERAN EL -0.7657
-0.1249 ERIZOS DE -0.5996
-1.2553 ES COSA 0.0000
-0.7782 ES EL -0.5946
-0.3010 ES UN -0.4443
-1.2553 ES UNA 0.0000
-0.0669 ESBELTA </s> 0.0000
-0.0792 ESCASEZ DE -0.7741
-0.0792 ESCRITURA HUíAN 0.0000
-0.0107 ESPACIO REDUCIDO 0.0000
-0.0669 ESPECIE DE -0.8403
-0.0792 ESPOSA ERA -0.6767
-0.3522 ESTABA LO -0.6210
-0.3522 ESTABA éL -0.6780
-0.0458 ESTABAN OCUPADOS 0.0000
-0.4949 ESTE ARCHIPIéLAGO 0.0000
-0.3565 ESTE CAMBIO 0.0000
-0.9208 ESTE NúMERO 0.0000
-0.0512 ESTOS CORROS 0.0000
-0.0792 EVOCACIóN CAMPESTRE 0.0000
-0.1249 EXCLUSIVO </s> 0.0000
-0.2041 EXTERIOR </s> 0.0000
-0.5351 EXTERIOR SE -0.8511
-0.0792 FATIGADOS POR -0.6173
-0.0512 FEMENINOS EN -0.9134
-0.0378 FIELES EN -1.0474
-0.0669 FLOREADA CRETONA 0.0000
-0.0512 FLOTABA SOBRE -0.8337
-0.0580 FONDO DEL -0.8552
-0.0669 FORMABAN ISLAS 0.0000
-0.0512 FORMADA DE -0.9478
-0.0378 FORMADOS POR -1.0182
-0.1249 FRASES DEBES 0.0000
-0.1249 FRíO RESPLANDOR 0.0000
-0.1249 FUERTE </s> 0.0000
-0.0580 FUMABAN SILENCIOSAS 0.0000
-0.1249 FéMUR </s> 0.0000
-0.0580 GEMIDOS DE -0.8715
-0.0669 GERMANOS Y -0.8060
-0.0378 GOLFOS Y -1.0463
-0.0792 GOMA SE -0.7416
-0.1249 GORJEOS DE -0.5996
-0.3010 GOZNE ES 0.0000
-0.1249 GRABAR LAS -0.5901
-0.0792 GRAN TAMAñO 0.0000
-0.0414 GRISáCEO DE -1.0184
-0.0669 GRUPOS DE -0.8403
-0.0792 GUSTE </s> 0.0000
-0.0378 HABANO Y -1.0463
-0.3010 HACE CASO 0.0000
-0.0792 HACIA ADELANTE 0.0000
-0.3010 HAY MáS 0.0000
-0.1249 HAZTE DONANTE 0.0000
-0.0414 HOJAS PARECíAN 0.0000
-0.0512 HORA ANTES 0.0000
-0.1249 HUESOS MáS -0.5746
-0.0512 HUMANO </s> 0.0000
-0.0512 HUMEABA EN -0.9165
-0.0458 HUMEDAD EXTERIOR -0.5740
-0.0378 HUMO DE -1.0703
-0.0669 HUSMEAR EL -0.8301
-0.0792 HUíAN DE -0.7396
-0.0669 HúMEDO QUE -0.7950
-0.0512 IGUAL A -0.8421
-0.0414 INFLAMADAS EN -1.0126
-0.0458 INMEDIATO BLANCO 0.0000
-0.0792 INSTALó AISLAMIENTO 0.0000
-0.3010 INTERNET </s> 0.0000
-0.7782 INTERNET HAY 0.0000
-0.0512 INVERNáCULO EL -0.8994
-0.3617 INVIERNO </s> 0.0000
-0.3203 INVIERNO DONDE -0.7570
-0.0378 INVISIBLE TéRMINO 0.0000
-0.0669 ISLAS </s> 0.0000
-0.0669 JARABES Y -0.8275
-0.5563 JARDíN CONTRAHECHO 0.0000
-0.2139 JARDíN DE -1.0620
-0.0792 JOVEN </s> 0.0000
-1.5263 LA ARTIFICIAL 0.0000
-1.3222 LA BANDEJA 0.0000
-1.0792 LA BLANCURA 0.0000
-1.5263 LA CAJA 0.0000
-1.6232 LA CARTERA 0.0000
-1.5263 LA CHINCHETA 0.0000
-1.3222 LA DECORACIóN 0.0000
-1.5263 LA DERECHA 0.0000
-1.5263 LA ESCASEZ 0.0000
-1.5263 LA ESCRITURA 0.0000
-1.2711 LA HUMEDAD 0.0000
-1.4472 LA MADERA -0.5763
-1.3222 LA MESA 0.0000
-1.7482 LA NIñA 0.0000
-1.3802 LA PARTE 0.0000
-1.5263 LA PERSONA 0.0000
-1.2711 LA PERSPECTIVA 0.0000
-1.3222 LA QUE -0.9184
-1.5263 LA SEñORA 0.0000
-1.3802 LA TARDE -0.7035
-1.3222 LA TAZA 0.0000
-1.3802 LA VEZ 0.0000
-0.0458 LABIOS EMPAñáNDOLOS 0.0000
-0.0458 LADO DE -0.9684
-0.0669 LAQUEADA TEMBLABA 0.0000
-0.1249 LARGOS DEL -0.5822
-1.2632 LAS AGUAS 0.0000
-1.1383 LAS AMPOLLAS 0.0000
-1.5643 LAS FRASES 0.0000
-0.8953 LAS MESAS 0.0000
-1.1383 LAS PALMERAS 0.0000
-1.1383 LAS PAREDES 0.0000
-1.1963 LAS PERSONAS -0.6301
-1.1383 LAS PLANTAS 0.0000
-1.2632 LAS QUE -0.8185
-1.0000 LAS RODILLAS 0.0000
-1.0872 LAS ROSADAS 0.0000
-1.0414 LAS VENTANAS -0.6892
-0.3010 LE HACE 0.0000
-0.0580 LENTITUD SOñOLIENTA 0.0000
-0.0669 LENTO BALANCEO 0.0000
-0.1249 LEVANTARSE DIJO 0.0000
-0.0669 LICORES </s> 0.0000
-0.0458 LIGERAMENTE TURBIOS 0.0000
-0.0378 LIMPIO QUE -1.0291
-0.3010 LLAMAR AL 0.0000
-0.0580 LLEGABAN CONFUNDIDOS 0.0000
-0.0969 LLENA </s> 0.0000
-0.3010 LLEVAR TRES 0.0000
-0.2711 LO MISMO -0.6021
-0.7482 LO QUE -0.7561
-0.7482 LO ROBARON 0.0000
-0.3010 LOCOMOTORA </s> 0.0000
-1.5817 LOS ARCOS 0.0000
-1.4567 LOS ASIENTOS 0.0000
-1.5147 LOS BUSTOS 0.0000
-1.5147 LOS CAMAREROS -0.6726
-1.4567 LOS CANALIZOS 0.0000
-1.1046 LOS CRISTALES -0.5790
-1.4567 LOS ENREJADOS 0.0000
-1.8827 LOS ERIZOS 0.0000
-1.5147 LOS GEMIDOS 0.0000
-1.3184 LOS GOLFOS 0.0000
-1.8827 LOS HUESOS 0.0000
-1.4056 LOS MISMOS 0.0000
-0.7578 LOS PASOS 0.0000
-1.4567 LOS PLANOS 0.0000
-1.4567 LOS PLIEGOS 0.0000
-1.3184 LOS PROMONTORIOS 0.0000
-1.1557 LOS RECTáNGULOS 0.0000
-1.3184 LOS RESPALDOS 0.0000
-1.5147 LOS TECLEOS 0.0000
-1.6609 LOS VECINOS 0.0000
-1.5147 LOS VIOLINES -0.6301
-0.0792 LUEGO A -0.6660
-0.0669 LUMINOSOS DE -0.8403
-0.3590 LíNEAS LAS -0.8745
-0.3590 LíNEAS NEGRAS 0.0000
-0.3358 MADERA LAQUEADA 0.0000
-0.4150 MADERA TENDIDOS 0.0000
-0.0792 MADRUGAR AMANECE 0.0000
-0.0792 MADURILLA A -0.7601
-0.0792 MAGO PARECíA -0.6455
-0.1249 MANO QUE -0.5890
-0.0669 MANTECA Y -0.8275
-0.1249 MANTO MUY -0.5441
-0.1249 MAR TIENEN 0.0000
-0.5051 ME LO -0.6927
-0.5051 ME QUEDABA 0.0000
-0.7270 ME SUENA 0.0000
-0.0458 MECáNICA </s> 0.0000
-0.0580 MEDIA DOCENA 0.0000
-0.3010 MEDIOAMBIENTE ES 0.0000
-0.0669 MERMELADAS EL -0.8301
-0.0512 MESA LOS -0.9388
-0.0300 MESAS DE -0.8917
-0.0792 METIó EN -0.7404
-0.3010 METáLICA </s> 0.0000
-0.0512 MEZCLáBASE A -0.8421
-0.2041 MI CARRO 0.0000
-0.9031 MI PADRE 0.0000
-0.0792 MIDE CINCUENTA -0.5149
-0.1249 MIGUEL VEN 0.0000
-0.0669 MINERALES TEñIDAS 0.0000
-0.8239 MISMO </s> 0.0000
-0.1249 MISMO QUE -0.8596
-0.0458 MISMOS OCULTáNDOSE 0.0000
-0.0107 MOVIESEN EN -1.4650
-0.0669 MOVíASE PASANDO 0.0000
-0.0792 MUCHO MADRUGAR 0.0000
-0.0580 MUJERES Y -0.8825
-0.0792 MUNDO MIDE 0.0000
-0.7782 MUY CARA 0.0000
-0.9031 MUY CARO 0.0000
-0.9031 MUY FUERTE 0.0000
-0.7782 MUY LLENA 0.0000
-0.6812 MUY SIMPáTICA 0.0000
-0.7871 MáS ALLá 0.0000
-1.6902 MáS COSAS 0.0000
-1.2131 MáS LARGOS 0.0000
-0.6488 MáS LIMPIO 0.0000
-0.9912 MáS PEQUEñA 0.0000
-0.9912 MáS TE -0.3522
-0.9912 MáS TEMPRANO 0.0000
-1.2131 MáS VALE 0.0000
-0.0580 MúSICOS UNIFORMADOS 0.0000
-0.6021 NADA </s> 0.0000
-0.6021 NADA DE 0.0000
-0.3010 NADIE LE 0.0000
-0.0580 NEGRAS Y -0.8825
-0.1249 NIñA SUSURRó 0.0000
-0.0458 NIñOS RUBIOS -0.7212
-0.6021 NO A -0.7601
-0.6021 NO OíR 0.0000
-0.6021 NO POR -0.7515
-1.3010 NO TE 0.0000
-0.1249 NUEVE DE -0.5996
-0.1249 NúMERO </s> 0.0000
-0.3979 O SEGUIR 0.0000
-0.3310 O SEGUíAN 0.0000
-0.0580 OBLICUAS SEMEJANTES 0.0000
-0.0458 OCULTáNDOSE PARA -0.9006
-0.0458 OCUPADOS POR -0.9508
-0.4771 OJEDA </s> 0.0000
-0.2730 OJEDA AHORA -0.5393
-0.3802 OJOS </s> 0.0000
-0.3802 OJOS FATIGADOS 0.0000
-0.0792 ONCE DOCE 0.0000
-0.3010 OPERATIVO </s> 0.0000
-0.0378 OPIO </s> 0.0000
-0.0378 ORIENTAL CON -1.0395
-0.0458 ORO </s> 0.0000
-0.0669 OTRA VENTANACON 0.0000
-0.0458 OTRO LADO 0.0000
-0.1249 OíDO </s> 0.0000
-0.0792 OíR A -0.7257
-0.2430 PADRE DIO 0.0000
-0.8451 PADRE RONCA 0.0000
-0.0512 PALMERAS DE -0.9478
-0.0669 PAN TOSTADO 0.0000
-0.0792 PAPEL CON -0.7309
-1.0414 PARA ADQUIRIR 0.0000
-1.0414 PARA AUTENTIFICAR 0.0000
-0.8653 PARA EMBADURNAR 0.0000
-0.9445 PARA NO -0.6532
-0.6435 PARA REPOSARSE 0.0000
-0.6892 PARA VOLVER 0.0000
-0.0792 PARECER JOVEN 0.0000
-0.5798 PARECíA ANIMAR 0.0000
-0.5798 PARECíA DE -0.7741
-0.5006 PARECíA VENIR 0.0000
-0.0414 PARECíAN RETAZOS 0.0000
-0.3522 PARED A -0.9250
-0.3522 PARED FORMADA 0.0000
-0.0512 PAREDES </s> 0.0000
-0.0414 PARRAS ARTIFICIALES 0.0000
-0.0580 PARTE EXTERIOR -0.7533
-0.3010 PARTES DE 0.0000
-0.0512 PASABAN CON -0.9070
-0.0669 PASANDO DE -0.8403
-0.0580 PASEANTES SIEMPRE 0.0000
-0.0107 PASOS CONTADOS 0.0000
-0.3010 PELELE Y 0.0000
-0.0378 PENíNSULAS FORMADOS 0.0000
-0.0792 PEQUEñA DEL -0.7445
-0.0512 PEQUEñOS CRISTALES -0.8141
-0.2374 PERFUME DE -1.0703
-0.5006 PERFUME DEL -0.8044
-0.0458 PERO CON -0.9678
-0.0792 PERSONA MáS -0.7314
-0.3310 PERSONAS CERCANAS 0.0000
-0.3979 PERSONAS PARA -0.7814
-0.0458 PERSPECTIVA AL -0.7959
-0.0792 PESAR DE -0.7741
-0.3590 PIANO DE -0.8974
-0.3590 PIANO Y -0.8640
-0.0512 PICTóRICO DE -0.9227
-0.3802 PILASTRA A -0.7601
-0.3802 PILASTRA Y -0.7545
-0.0512 PLANOS DE -0.9157
-0.0512 PLANTAS MáS -0.8768
-0.0414 PLENA TARDE -0.7169
-0.0512 PLIEGOS </s> 0.0000
-0.9700 POR CRIADAS 0.0000
-1.0792 POR EL -0.8856
-0.5093 POR LA -0.8020
-0.8829 POR LAS -1.0334
-1.0212 POR LOS -0.9388
-1.2253 POR MUCHO 0.0000
-0.9700 POR SEñORAS 0.0000
-1.9243 POR UNA 0.0000
-0.3010 PORNOGRAFíA </s> 0.0000
-0.0580 PRESENTE DE -0.8974
-0.0512 PRIMERO DONDE -0.7460
-0.0378 PROMONTORIOS DE -1.0476
-0.0792 PUEDE DECIR 0.0000
-0.1249 PUEDES AYUDAR 0.0000
-0.0969 PULSA EL -0.6890
-0.1249 PáJARO EN -0.5936
-0.1249 PáJAROS </s> 0.0000
-0.0378 PéNDULO </s> 0.0000
-1.1012 QUE ADORNABA 0.0000
-1.0501 QUE CERRABAN 0.0000
-1.5272 QUE CIENTO 0.0000
-0.9629 QUE EN -1.0228
-1.0043 QUE ENCUADRABAN 0.0000
-1.1592 QUE LOS -0.8896
-1.3054 QUE MáS -0.7314
-1.3054 QUE NO -0.6532
-0.9629 QUE PARECíA -0.4372
-2.0043 QUE PORNOGRAFíA 0.0000
-1.2262 QUE SE -0.8009
-1.4023 QUE TENER 0.0000
-1.1012 QUE UNA -0.9053
-0.0792 QUEDABA UN -0.7579
-0.0792 QUINCE </s> 0.0000
-0.0792 QUIéN PUEDE 0.0000
-0.1249 QUé ME -0.5119
-0.3010 RAPIDAMENTE EL 0.0000
-0.0792 RECIPIENTE CERáMICO 0.0000
-0.2553 RECTáNGULOS DE -1.0029
-0.4771 RECTáNGULOS LUMINOSOS 0.0000
-0.0107 REDUCIDO CON -1.4469
-0.3310 REFLEJO AZUL -0.7782
-0.3979 REFLEJO HúMEDO 0.0000
-0.0378 REGULAR Y -1.0463
-0.0458 REGULARIDAD CASI 0.0000
-0.0414 REPOSARSE EN -1.0126
-0.0378 RESPALDOS LOS -1.0578
-0.1249 RESPLANDOR DE -0.5635
-0.0414 RETAZOS DE -1.0333
-0.0792 RIGIDEZ DEL -0.7445
-0.0580 RISAS DE -0.8974
-0.0792 ROBARON </s> 0.0000
-0.0378 RODILLAS </s> 0.0000
-0.3010 RONCA COMO 0.0000
-0.0512 ROSA IGUAL 0.0000
-0.0458 ROSADAS VENTOSAS 0.0000
-0.0669 RUBIAS DE -0.8403
-0.3757 RUBIOS DE -0.9478
-0.3245 RUBIOS SOSTENIDOS 0.0000
-0.1249 SABOR MUY -0.5441
-0.0792 SALONES AGRANDADOS 0.0000
-0.1249 SALVAR VIDAS 0.0000
-0.3010 SALóN INMEDIATO 0.0000
-0.4102 SALóN LLEGABAN 0.0000
-0.1249 SANGRE PUEDES 0.0000
-1.0142 SE ACOGíAN 0.0000
-0.9473 SE DESLIZABAN 0.0000
-1.0934 SE METIó 0.0000
-0.1903 SE MOVIESEN 0.0000
-0.0512 SEDA ROSA 0.0000
-0.0669 SEGUIR EL -0.8301
-0.0580 SEGUNDO SALóN -0.6892
-0.0580 SEGUíAN SUS -0.8147
-0.3010 SEIS DOS 0.0000
-0.0969 SELLOS MUY -0.6198
-0.0580 SEMEJANTES A -0.8776
-0.1249 SESENTA Y -0.5933
-0.0792 SEñALA CON -0.7606
-0.0792 SEñORA ERA -0.6767
-0.0458 SEñORAS </s> 0.0000
-0.0107 SI SE -1.1628
-0.0580 SIEMPRE </s> 0.0000
-0.3010 SIETE </s> 0.0000
-0.0580 SILENCIOSAS O -0.6301
-0.0669 SILLONES DE -0.8403
-0.0792 SIMPáTICA </s> 0.0000
-0.3010 SISTEMA OPERATIVO 0.0000
-0.0378 SITUACIóN REGULAR 0.0000
-0.6154 SOBRE LA -0.9331
-0.6154 SOBRE LAS -0.9214
-0.7404 SOBRE LOS -0.8136
-0.6734 SOBRE UNA -0.8605
-0.0378 SORTEANDO LOS -1.0578
-0.0458 SOSTENIDOS POR -0.9508
-0.0580 SOñOLIENTA </s> 0.0000
-0.5051 SU ALTURA 0.0000
-0.5051 SU ESPOSA 0.0000
-0.7270 SU OíDO 0.0000
-0.1249 SUBIRLAS A -0.5913
-0.3010 SUELE LLEVAR 0.0000
-0.1249 SUENA ESTE -0.5465
-0.0792 SUJETA EL -0.7657
-0.8016 SUS CABEZAS 0.0000
-0.7347 SUS CONVERSACIONES 0.0000
-0.6255 SUS LABIOS 0.0000
-0.8808 SUS OJOS -0.5441
-0.8016 SUS VIOLINES -0.6232
-0.1249 SUSURRó ALGO 0.0000
-0.0792 SóLO ME -0.6154
-0.0378 TABACO ORIENTAL 0.0000
-0.0792 TAMAñO </s> 0.0000
-0.0458 TAMBIéN PERO 0.0000
-0.0512 TAPIZADOS DE -0.9478
-0.4337 TARDE </s> 0.0000
-0.2788 TARDE PARA -0.9294
-0.0580 TARIMA ALREDEDOR 0.0000
-0.0512 TAZA DE -0.9437
-0.2041 TE GUSTE 0.0000
-0.9031 TE VOY 0.0000
-0.4472 TECHO </s> 0.0000
-0.3010 TECHO COLOREADO 0.0000
-0.0580 TECLEOS DEL -0.8552
-0.0669 TEMBLABA CON -0.8239
-0.0792 TEMPRANO </s> 0.0000
-0.0792 TENDIDOS DE -0.7741
-0.0969 TENER LA -0.6885
-0.0414 TERCIOPELO </s> 0.0000
-0.0669 TEñIDAS DE -0.8403
-0.1249 TIENEN UN -0.5901
-0.0969 TIENES QUE -0.6814
-0.0512 TODO ESTABA -0.6990
-0.3010 TODOS </s> 0.0000
-0.0300 TORNO DE -1.1376
-0.0669 TOSTADO HUSMEAR 0.0000
-0.0792 TRECE CATORCE 0.0000
-0.0969 TREINTA CUARENTA 0.0000
-0.3010 TRES PARTES 0.0000
-0.0969 TU USUARIO 0.0000
-0.0458 TURBIOS POR -0.8391
-0.4949 Té </s> 0.0000
-0.4949 Té HUMEABA 0.0000
-0.6198 Té O -0.6232
-0.0378 TéRMINO ACOMPAñáNDOLA 0.0000
-1.3424 UN ABRIR 0.0000
-2.0414 UN ALIñO 0.0000
-1.3424 UN CULíN 0.0000
-1.0414 UN DíA 0.0000
-0.4393 UN ESPACIO 0.0000
-2.0414 UN GOZNE 0.0000
-1.5643 UN MANTO 0.0000
-2.0414 UN PELELE 0.0000
-1.1963 UN PIANO -0.6532
-1.0000 UN PéNDULO 0.0000
-1.3424 UN RECIPIENTE 0.0000
-1.5643 UN SABOR 0.0000
-1.3424 UN áNFORA 0.0000
-1.0969 UNA A -0.8234
-0.8337 UNA ATMóSFERA 0.0000
-1.8751 UNA BISAGRA 0.0000
-1.1761 UNA BUENA 0.0000
-1.2730 UNA COLECCIóN 0.0000
-1.8751 UNA DE 0.0000
-1.0969 UNA ESPECIE 0.0000
-1.1761 UNA EVOCACIóN 0.0000
-0.9720 UNA HORA 0.0000
-1.8751 UNA LOCOMOTORA 0.0000
-1.0300 UNA TARIMA 0.0000
-0.9720 UNA VIDRIERA 0.0000
-0.4337 UNAS LíNEAS -0.6532
-0.2788 UNAS PARRAS 0.0000
-0.0580 UNIFORMADOS LO -0.5699
-0.0512 UNIFORME DE -0.9371
-0.1249 UNO DE -0.5705
-0.2688 UNOS PASEANTES 0.0000
-0.5119 UNOS ZAPATOS 0.0000
-0.0969 USUARIO Y -0.6873
-0.0512 VACíA Y -0.9306
-0.1249 VALE PáJARO 0.0000
-0.3010 VAMOS A 0.0000
-0.0792 VECINOS </s> 0.0000
-0.0969 VEINTE VEINTIUNO 0.0000
-0.0969 VEINTIUNO TREINTA 0.0000
-0.0792 VELLUDO </s> 0.0000
-0.1249 VEN AQUí 0.0000
-0.0669 VENIR DEL -0.8044
-0.3590 VENTANA EN -0.8832
-0.3590 VENTANA LOS -0.8896
-0.0669 VENTANACON LENTO 0.0000
-0.4771 VENTANAS </s> 0.0000
-0.2553 VENTANAS QUE -0.9961
-0.0458 VENTOSAS DE -0.9878
-0.0458 VER EL -0.9773
-0.6812 VERDE AMARILLENTO 0.0000
-0.4771 VERDE CHAROLADO 0.0000
-0.4771 VERDE PICTóRICO 0.0000
-0.0792 VETE HACIA 0.0000
-0.0580 VEZ POR -0.8653
-0.1249 VIDAS </s> 0.0000
-0.0512 VIDRIERA DE -0.9478
-0.3010 VINAGRE </s> 0.0000
-0.0792 VINO </s> 0.0000
-0.3310 VIOLINES DEL -0.8174
-0.3979 VIOLINES DESTACáBANSE 0.0000
-0.0792 VISUAL DE -0.7676
-0.1249 VOLANDO </s> 0.0000
-0.0458 VOLVER A -0.9670
-0.3010 VOY A 0.0000
-1.1376 Y ACOMPASADO 0.0000
-1.2759 Y BLANQUEABAN 0.0000
-1.2759 Y BOTONES 0.0000
-1.4800 Y CERRAR 0.0000
-1.3339 Y CHOQUE 0.0000
-1.5769 Y CONTRASEñA 0.0000
-1.2759 Y EL -0.6357
-1.7019 Y EXCLUSIVO 0.0000
-1.4008 Y LICORES 0.0000
-1.0650 Y LOS -0.8497
-1.4800 Y LUEGO 0.0000
-1.4008 Y MERMELADAS 0.0000
-2.1790 Y NADIE 0.0000
-1.7019 Y NUEVE 0.0000
-1.3339 Y OBLICUAS 0.0000
-1.1376 Y PENíNSULAS 0.0000
-1.4800 Y QUINCE 0.0000
-1.1376 Y TABACO 0.0000
-1.5769 Y UNA -0.6752
-1.4800 Y VELLUDO 0.0000
-0.0969 ZAPATOS Y -0.6873
-0.0792 áNFORA ES -0.4771
-0.3854 éL FUMABAN 0.0000
-0.3274 éL MEZCLáBASE 0.0000

\3-grams:
-0.0669 <s> A LAS
-0.1249 <s> ADEMáS DE
-0.1249 <s> AL LEVANTARSE
-0.0378 <s> AMARILLA DE
-0.0512 <s> CAMAREROS RUBIOS
-0.0700 <s> COMO SI
-0.9731 <s> COMO UNA
-0.0580 <s> CUBIERTOS AL
-0.0414 <s> DE UNAS
-0.0458 <s> DEJABA VER
-0.0580 <s> DEL FONDO
-0.0792 <s> DIEZ ONCE
-0.0792 <s> DOS SALONES
-0.3565 <s> EL AMBIENTE
-0.6990 <s> EL MAGO
-0.7959 <s> EL PADRE
-0.1383 <s> EN EL
-0.0969 <s> ES UN
-0.0458 <s> ESTABAN OCUPADOS
-0.0512 <s> FLOTABA SOBRE
-0.1249 <s> HAZTE DONANTE
-0.0414 <s> INFLAMADAS EN
-0.0792 <s> INSTALó AISLAMIENTO
-0.5836 <s> LA BLANCURA
-0.8846 <s> LA NIñA
-0.6628 <s> LA PERSONA
-0.6628 <s> LA SEñORA
-0.0512 <s> LAS PALMERAS
-0.5883 <s> LOS ASIENTOS
-1.0142 <s> LOS ERIZOS
-0.5371 <s> LOS MISMOS
-0.6463 <s> LOS TECLEOS
-0.0792 <s> MADERA TENDIDOS
-0.0669 <s> MANTECA Y
-0.0580 <s> MEDIA DOCENA
-0.2041 <s> MI CARRO
-0.1249 <s> MIGUEL VEN
-0.0669 <s> MOVíASE PASANDO
-0.1249 <s> MáS VALE
-0.0458 <s> NIñOS RUBIOS
-0.2041 <s> NO POR
-0.3979 <s> PARA ADQUIRIR
-0.3979 <s> PARA AUTENTIFICAR
-0.0580 <s> POR LA
-0.0458 <s> QUE CERRABAN
-0.0792 <s> QUIéN PUEDE
-0.1249 <s> SESENTA Y
-0.0792 <s> SEñALA CON
-0.0669 <s> SILLONES DE
-0.0378 <s> SORTEANDO LOS
-0.0792 <s> SU ESPOSA
-0.0792 <s> SUJETA EL
-0.3358 <s> SUS CABEZAS
-0.4150 <s> SUS OJOS
-0.0792 <s> SóLO ME
-0.0512 <s> TODO ESTABA
-0.3010 <s> UN áNFORA
-0.0512 <s> UNA VIDRIERA
-0.0580 <s> UNAS LíNEAS
-0.1249 <s> UNO DE
-0.0969 <s> VEINTE VEINTIUNO
-0.0792 <s> VETE HACIA
-0.1249 <s> Y EL
-0.0458 A APARECER CON
-0.0580 A CUERDAS </s>
-0.1249 A INTERNET </s>
-0.6021 A LA BLANCURA
-0.8062 A LA DERECHA
-0.6021 A LA QUE
-0.6601 A LA VEZ
-0.0669 A LAS QUE
-0.2499 A LOS CRISTALES
-0.5051 A LOS VECINOS
-0.0669 A OTRA VENTANACON
-0.0512 A PARED FORMADA
-0.0792 A PESAR DE
-0.0792 A PILASTRA Y
-0.1249 A SALVAR VIDAS
-0.0792 A UNA BUENA
-0.0580 A éL FUMABAN
-0.0792 ABRIR Y CERRAR
-0.0669 ACOGíAN GRUPOS DE
-0.0378 ACOMPASADO COMO EL
-0.0378 ACOMPAñáNDOLA FIELES EN
-0.0792 ACúSTICO PARA NO
-0.0792 ADELANTE Y LUEGO
-0.1249 ADEMáS DE GRABAR
-0.0458 ADHERíAN A LOS
-0.0512 ADORNABA LOS PLANOS
-0.0458 ADORNOS DE ORO
-0.0969 ADQUIRIR EL CAMIóN
-0.0792 AGRANDADOS POR LA
-0.0580 AGRUPáBANSE SOBRE UNA
-0.0669 AGUAS MINERALES TEñIDAS
-0.1249 AHORA MISMO </s>
-0.0512 AHORA VACíA Y
-0.0792 AISLAMIENTO ACúSTICO PARA
-0.1249 AL LEVANTARSE DIJO
-0.0458 AL OTRO LADO
-0.0580 AL PRESENTE DE
-0.1249 ALGO EN SU
-0.0512 ALLá DE ESTOS
-0.0580 ALREDEDOR DE UN
-0.0512 ALTO POR LOS
-0.0792 ALTURA ERAN EL
-0.0792 AMANECE MáS TEMPRANO
-0.0378 AMARILLA DE INVISIBLE
-0.0792 AMARILLENTO Y VELLUDO
-0.0378 AMBIENTE ERA MáS
-0.3010 AMPOLLAS ELéCTRICAS DEL
-0.5229 AMPOLLAS ELéCTRICAS DESCENDíAN
-0.0792 ANIMAR LA ARTIFICIAL
-0.0512 ANTES CUANDO EL
-0.0458 APARECER CON REGULARIDAD
-0.1249 AQUí AHORA MISMO
-0.0512 ARCHIPIéLAGO HUMANO </s>
-0.0669 ARCOS DE SUS
-0.0792 ARTIFICIAL RIGIDEZ DEL
-0.0414 ARTIFICIALES CUYAS HOJAS
-0.0512 ASIENTOS TAPIZADOS DE
-0.0378 ATMóSFERA DE HUMO
-0.0969 AUTENTIFICAR TU USUARIO
-0.1249 AYUDAR A SALVAR
-0.0580 AZUL DE LA
-0.0414 AZUL GRISáCEO DE
-0.0512 AZUL Y BOTONES
-0.0669 BALANCEO UNA ESPECIE
-0.0669 BAMBú FORMABAN ISLAS
-0.0512 BANDEJA EN ALTO
-0.0458 BLANCO TAMBIéN PERO
-0.0669 BLANCURA DE LA
-0.0512 BLANCURA UNIFORME DE
-0.0512 BLANQUEABAN SOBRE LA
-0.0512 BOTONES DORADOS PASABAN
-0.0969 BOTóN ACEPTAR </s>
-0.0792 BUENA CHULETA </s>
-0.1249 BUENOS DíAS </s>
-0.0669 BURBUJEO DE LAS
-0.0580 BUSTOS DE UNOS
-0.0669 CABEZAS RUBIAS DE
-0.0792 CAJA EN UN
-0.0580 CAMAREROS AGRUPáBANSE SOBRE
-0.0512 CAMAREROS RUBIOS DE
-0.0378 CAMBIO DE SITUACIóN
-0.0969 CAMIóN TIENES QUE
-0.0792 CAMPESTRE QUE PARECíA
-0.0792 CAMPO VISUAL DE
-0.0512 CANALIZOS DE ESTE
-0.1249 CARO Y EXCLUSIVO
-0.0792 CARRO ME LO
-0.0969 CARTERA MUY LLENA
-0.0458 CASI MECáNICA </s>
-0.0792 CATORCE Y QUINCE
-0.0580 CERCANAS A éL
-0.0458 CERRABAN LA PERSPECTIVA
-0.0792 CERRAR DE OJOS
-0.0792 CERáMICO DE GRAN
-0.0512 CHAQUETA AZUL Y
-0.0580 CHOQUE DE BANDEJAS
-0.1249 CIENTO VOLANDO </s>
-0.0669 CIERTO REFLEJO HúMEDO
-0.0792 CINCUENTA CENTíMETROS </s>
-0.0458 COBRIZAS ADHERíAN A
-0.0969 COLECCIóN DE SELLOS
-0.0580 COLOREADO A LA
-0.0669 COLUMNA ESBELTA </s>
-0.0969 COMO DOTE UNOS
-0.0378 COMO EL DE
-0.0107 COMO SI SE
-0.2041 COMO UNA EVOCACIóN
-0.0580 COMPACTAS LíNEAS LAS
-0.0458 CON ADORNOS DE
-0.0669 CON CIERTO REFLEJO
-0.0458 CON CíRCULOS </s>
-0.0792 CON EL DEDO
-0.2730 CON LA BANDEJA
-0.4771 CON LA CHINCHETA
-0.0580 CON LENTITUD SOñOLIENTA
-0.0107 CON LOS PASOS
-0.0378 CON PERFUME DE
-0.0458 CON REGULARIDAD CASI
-0.0580 CON RISAS DE
-0.0580 CONFUNDIDOS CON RISAS
-0.0969 CONTRASEñA PULSA EL
-0.0580 CONVERSACIONES CON LENTITUD
-0.0512 CORROS FEMENINOS EN
-0.0512 CORTA CHAQUETA AZUL
-0.0669 CRETONA EN TORNO
-0.0458 CRIADAS COBRIZAS ADHERíAN
-0.0512 CRISTALES BISELADOS </s>
-0.0458 CRISTALES LAS ROSADAS
-0.0458 CRISTALES LIGERAMENTE TURBIOS
-0.0512 CUANDO EL Té
-0.0969 CUARENTA CINCUENTA </s>
-0.0669 CUATRO VENTANAS </s>
-0.0580 CUBIERTOS AL PRESENTE
-0.1249 CUERPO ES EL
-0.0792 CULíN DE VINO
-0.0414 CUYAS HOJAS PARECíAN
-0.0669 DE BAMBú FORMABAN
-0.0580 DE BANDEJAS </s>
-0.0580 DE COLA </s>
-0.0669 DE COLUMNA ESBELTA
-0.0580 DE COMPACTAS LíNEAS
-0.0512 DE CORTA CHAQUETA
-0.0669 DE CUATRO VENTANAS
-0.0512 DE ESTE ARCHIPIéLAGO
-0.0512 DE ESTOS CORROS
-0.0669 DE FLOREADA CRETONA
-0.0669 DE GERMANOS Y
-0.0792 DE GOMA SE
-0.1249 DE GRABAR LAS
-0.0792 DE GRAN TAMAñO
-0.0378 DE HABANO Y
-0.0378 DE HUMO DE
-0.0512 DE INVERNáCULO EL
-0.3617 DE INVIERNO </s>
-0.3203 DE INVIERNO DONDE
-0.0378 DE INVISIBLE TéRMINO
-0.0669 DE JARABES Y
-0.4771 DE LA DECORACIóN
-0.6021 DE LA MADERA
-0.5351 DE LA TARDE
-0.9294 DE LAS AGUAS
-0.8045 DE LAS AMPOLLAS
-0.5614 DE LAS MESAS
-0.8045 DE LAS PAREDES
-0.7076 DE LAS VENTANAS
-0.6792 DE LOS CRISTALES
-0.7304 DE LOS ENREJADOS
-1.1563 DE LOS HUESOS
-0.5921 DE LOS RESPALDOS
-0.7884 DE LOS VIOLINES
-0.1249 DE MAR TIENEN
-0.0580 DE MUJERES Y
-0.0580 DE MúSICOS UNIFORMADOS
-0.4771 DE OJEDA </s>
-0.2730 DE OJEDA AHORA
-0.0792 DE OJOS </s>
-0.0378 DE OPIO </s>
-0.0458 DE ORO </s>
-0.0792 DE PARECER JOVEN
-0.0512 DE PARED A
-0.0512 DE PEQUEñOS CRISTALES
-0.0669 DE PERSONAS PARA
-0.0792 DE PILASTRA A
-0.1249 DE PáJAROS </s>
-0.1249 DE QUé ME
-0.1249 DE SANGRE PUEDES
-0.0512 DE SEDA ROSA
-0.0969 DE SELLOS MUY
-0.0378 DE SITUACIóN REGULAR
-0.0792 DE SU ALTURA
-0.2762 DE SUS LABIOS
-0.4523 DE SUS VIOLINES
-0.0414 DE TERCIOPELO </s>
-0.0512 DE Té </s>
-0.4914 DE UN DíA
-0.6463 DE UN PIANO
-0.4500 DE UN PéNDULO
-0.0669 DE UNA A
-0.0414 DE UNAS PARRAS
-0.0580 DE UNOS PASEANTES
-0.0580 DE VENTANA EN
-0.0792 DE VINO </s>
-0.1249 DEBES SUBIRLAS A
-0.0792 DECIR QUE NO
-0.0512 DECORACIóN EL VERDE
-0.0792 DEDO LO QUE
-0.0458 DEJABA VER EL
-0.1249 DEL CUERPO ES
-0.0669 DEL EXTERIOR </s>
-0.0580 DEL FONDO DEL
-0.0792 DEL JARDíN CONTRAHECHO
-0.0792 DEL MUNDO MIDE
-0.0580 DEL PIANO Y
-0.0580 DEL SEGUNDO SALóN
-0.4472 DEL TECHO </s>
-0.3010 DEL TECHO COLOREADO
-0.0669 DEL Té O
-0.1249 DESCENDíAN GORJEOS DE
-0.0580 DESLIZABAN DE VENTANA
-0.0669 DESTACáBANSE SOBRE LOS
-0.0792 DIEZ ONCE DOCE
-0.1249 DIJO BUENOS DíAS
-0.0969 DIO COMO DOTE
-0.0792 DOCE TRECE CATORCE
-0.0580 DOCENA DE MúSICOS
-0.1249 DONANTE DE SANGRE
-0.0512 DONDE ESTABA éL
-0.0378 DONDE UNA ATMóSFERA
-0.0512 DORADOS PASABAN CON
-0.0792 DOS SALONES AGRANDADOS
-0.0969 DOTE UNOS ZAPATOS
-0.0414 DíA DE INVIERNO
-0.0378 EL AMBIENTE ERA
-0.0414 EL AZUL GRISáCEO
-0.0969 EL BOTóN ACEPTAR
-0.0669 EL BURBUJEO DE
-0.0969 EL CAMIóN TIENES
-0.0792 EL CAMPO VISUAL
-0.0378 EL DE UN
-0.0792 EL DEDO LO
-0.1249 EL FRíO RESPLANDOR
-0.1249 EL FéMUR </s>
-0.0378 EL JARDíN DE
-0.0792 EL MAGO PARECíA
-0.0969 EL PADRE DIO
-0.0669 EL PAN TOSTADO
-0.0792 EL PAPEL CON
-0.0669 EL PERFUME DEL
-0.0512 EL PRIMERO DONDE
-0.0580 EL REFLEJO AZUL
-0.0458 EL SALóN INMEDIATO
-0.0512 EL Té HUMEABA
-0.6812 EL VERDE AMARILLENTO
-0.4771 EL VERDE CHAROLADO
-0.4771 EL VERDE PICTóRICO
-0.0792 ELéCTRICAS DEL TECHO
-0.1249 ELéCTRICAS DESCENDíAN GORJEOS
-0.0458 EMPAñáNDOLOS CON CíRCULOS
-0.0512 EN ALTO POR
-0.2808 EN EL JARDíN
-0.4191 EN EL PRIMERO
-0.0378 EN ESTE CAMBIO
-0.4771 EN LA CAJA
-0.2730 EN LA TAZA
-0.0414 EN LOS RECTáNGULOS
-0.1249 EN MANO QUE
-0.0414 EN PLENA TARDE
-0.1249 EN SU OíDO
-0.0300 EN TORNO DE
-0.9731 EN UN ABRIR
-0.0700 EN UN ESPACIO
-0.0580 EN VENTANA LOS
-0.0414 ENCUADRABAN EL AZUL
-0.0792 ERA MADURILLA A
-0.0792 ERA MUY SIMPáTICA
-0.0378 ERA MáS LIMPIO
-0.0792 ERAN EL CAMPO
-0.1249 ERIZOS DE MAR
-0.1249 ES EL FéMUR
-0.6021 ES UN MANTO
-0.3802 ES UN RECIPIENTE
-0.0792 ESCASEZ DE SU
-0.0792 ESCRITURA HUíAN DE
-0.0107 ESPACIO REDUCIDO CON
-0.0669 ESPECIE DE COLUMNA
-0.0792 ESPOSA ERA MUY
-0.0512 ESTABA LO MISMO
-0.0512 ESTABA éL MEZCLáBASE
-0.0458 ESTABAN OCUPADOS POR
-0.0512 ESTE ARCHIPIéLAGO HUMANO
-0.0378 ESTE CAMBIO DE
-0.1249 ESTE NúMERO </s>
-0.0512 ESTOS CORROS FEMENINOS
-0.0792 EVOCACIóN CAMPESTRE QUE
-0.0580 EXTERIOR SE DESLIZABAN
-0.0792 FATIGADOS POR LA
-0.0512 FEMENINOS EN TORNO
-0.0378 FIELES EN ESTE
-0.0669 FLOREADA CRETONA EN
-0.0512 FLOTABA SOBRE LAS
-0.0580 FONDO DEL SEGUNDO
-0.0669 FORMABAN ISLAS </s>
-0.0512 FORMADA DE PEQUEñOS
-0.0378 FORMADOS POR LAS
-0.1249 FRASES DEBES SUBIRLAS
-0.1249 FRíO RESPLANDOR DE
-0.0580 FUMABAN SILENCIOSAS O
-0.0580 GEMIDOS DE LOS
-0.0669 GERMANOS Y LOS
-0.0378 GOLFOS Y PENíNSULAS
-0.0792 GOMA SE METIó
-0.1249 GORJEOS DE PáJAROS
-0.1249 GRABAR LAS FRASES
-0.0792 GRAN TAMAñO </s>
-0.0414 GRISáCEO DE UN
-0.0669 GRUPOS DE PERSONAS
-0.0378 HABANO Y TABACO
-0.0792 HACIA ADELANTE Y
-0.1249 HAZTE DONANTE DE
-0.0414 HOJAS PARECíAN RETAZOS
-0.0512 HORA ANTES CUANDO
-0.1249 HUESOS MáS LARGOS
-0.0512 HUMEABA EN LA
-0.0458 HUMEDAD EXTERIOR </s>
-0.0378 HUMO DE HABANO
-0.0669 HUSMEAR EL PERFUME
-0.0792 HUíAN DE LAS
-0.0669 HúMEDO QUE PARECíA
-0.0512 IGUAL A LA
-0.0414 INFLAMADAS EN PLENA
-0.0458 INMEDIATO BLANCO TAMBIéN
-0.0792 INSTALó AISLAMIENTO ACúSTICO
-0.0512 INVERNáCULO EL VERDE
-0.0378 INVIERNO DONDE UNA
-0.0378 INVISIBLE TéRMINO ACOMPAñáNDOLA
-0.0669 JARABES Y LICORES
-0.0792 JARDíN CONTRAHECHO </s>
-0.0378 JARDíN DE INVIERNO
-0.0792 LA ARTIFICIAL RIGIDEZ
-0.0512 LA BANDEJA EN
-0.4260 LA BLANCURA DE
-0.3010 LA BLANCURA UNIFORME
-0.0792 LA CAJA EN
-0.0969 LA CARTERA MUY
-0.0792 LA CHINCHETA </s>
-0.0512 LA DECORACIóN EL
-0.0792 LA DERECHA </s>
-0.0792 LA ESCASEZ DE
-0.0792 LA ESCRITURA HUíAN
-0.0458 LA HUMEDAD EXTERIOR
-0.0669 LA MADERA LAQUEADA
-0.0512 LA MESA LOS
-0.1249 LA NIñA SUSURRó
-0.0580 LA PARTE EXTERIOR
-0.0792 LA PERSONA MáS
-0.0458 LA PERSPECTIVA AL
-0.0512 LA QUE ADORNABA
-0.0792 LA SEñORA ERA
-0.0580 LA TARDE </s>
-0.0512 LA TAZA DE
-0.0580 LA VEZ POR
-0.0458 LABIOS EMPAñáNDOLOS CON
-0.0458 LADO DE LOS
-0.0669 LAQUEADA TEMBLABA CON
-0.1249 LARGOS DEL CUERPO
-0.0669 LAS AGUAS MINERALES
-0.0512 LAS AMPOLLAS ELéCTRICAS
-0.1249 LAS FRASES DEBES
-0.0300 LAS MESAS DE
-0.0512 LAS PALMERAS DE
-0.0512 LAS PAREDES </s>
-0.0580 LAS PERSONAS CERCANAS
-0.0512 LAS PLANTAS MáS
-0.0669 LAS QUE SE
-0.0378 LAS RODILLAS </s>
-0.0458 LAS ROSADAS VENTOSAS
-0.0414 LAS VENTANAS QUE
-0.0580 LENTITUD SOñOLIENTA </s>
-0.0669 LENTO BALANCEO UNA
-0.1249 LEVANTARSE DIJO BUENOS
-0.0458 LIGERAMENTE TURBIOS POR
-0.0378 LIMPIO QUE EN
-0.0580 LLEGABAN CONFUNDIDOS CON
-0.0280 LO MISMO QUE
-0.0792 LO QUE MáS
-0.0792 LO ROBARON </s>
-0.0669 LOS ARCOS DE
-0.0512 LOS ASIENTOS TAPIZADOS
-0.0580 LOS BUSTOS DE
-0.0580 LOS CAMAREROS AGRUPáBANSE
-0.0512 LOS CANALIZOS DE
-0.3468 LOS CRISTALES LAS
-0.3468 LOS CRISTALES LIGERAMENTE
-0.0512 LOS ENREJADOS </s>
-0.1249 LOS ERIZOS DE
-0.0580 LOS GEMIDOS DE
-0.0378 LOS GOLFOS Y
-0.1249 LOS HUESOS MáS
-0.0458 LOS MISMOS OCULTáNDOSE
-0.0107 LOS PASOS CONTADOS
-0.0512 LOS PLANOS DE
-0.0512 LOS PLIEGOS </s>
-0.0378 LOS PROMONTORIOS DE
-0.2553 LOS RECTáNGULOS DE
-0.4771 LOS RECTáNGULOS LUMINOSOS
-0.0378 LOS RESPALDOS LOS
-0.0580 LOS TECLEOS DEL
-0.0792 LOS VECINOS </s>
-0.0580 LOS VIOLINES DEL
-0.0792 LUEGO A LA
-0.0669 LUMINOSOS DE CUATRO
-0.0580 LíNEAS LAS PERSONAS
-0.0580 LíNEAS NEGRAS Y
-0.0669 MADERA LAQUEADA TEMBLABA
-0.0792 MADERA TENDIDOS DE
-0.0792 MADRUGAR AMANECE MáS
-0.0792 MADURILLA A PESAR
-0.0792 MAGO PARECíA DE
-0.1249 MANO QUE CIENTO
-0.0669 MANTECA Y MERMELADAS
-0.1249 MANTO MUY CARO
-0.1249 MAR TIENEN UN
-0.0792 ME LO ROBARON
-0.0792 ME QUEDABA UN
-0.1249 ME SUENA ESTE
-0.0580 MEDIA DOCENA DE
-0.0669 MERMELADAS EL PAN
-0.0512 MESA LOS PLIEGOS
-0.4260 MESAS DE BAMBú
-0.3010 MESAS DE Té
-0.0792 METIó EN LA
-0.0512 MEZCLáBASE A LA
-0.0792 MI CARRO ME
-0.0792 MIDE CINCUENTA CENTíMETROS
-0.1249 MIGUEL VEN AQUí
-0.0669 MINERALES TEñIDAS DE
-0.3854 MISMO QUE LOS
-0.3274 MISMO QUE UNA
-0.0458 MISMOS OCULTáNDOSE PARA
-0.0107 MOVIESEN EN UN
-0.0669 MOVíASE PASANDO DE
-0.0792 MUCHO MADRUGAR AMANECE
-0.0580 MUJERES Y CHOQUE
-0.0792 MUNDO MIDE CINCUENTA
-0.0969 MUY CARA </s>
-0.1249 MUY CARO Y
-0.1249 MUY FUERTE </s>
-0.0969 MUY LLENA </s>
-0.0792 MUY SIMPáTICA </s>
-0.0512 MáS ALLá DE
-0.1249 MáS LARGOS DEL
-0.0378 MáS LIMPIO QUE
-0.0792 MáS PEQUEñA DEL
-0.0792 MáS TE GUSTE
-0.0792 MáS TEMPRANO </s>
-0.1249 MáS VALE PáJARO
-0.0580 MúSICOS UNIFORMADOS LO
-0.0580 NEGRAS Y OBLICUAS
-0.1249 NIñA SUSURRó ALGO
-0.0458 NIñOS RUBIOS SOSTENIDOS
-0.0792 NO A UNA
-0.0792 NO OíR A
-0.0792 NO POR MUCHO
-0.1249 NUEVE DE QUé
-0.0669 O SEGUIR EL
-0.0580 O SEGUíAN SUS
-0.0580 OBLICUAS SEMEJANTES A
-0.0458 OCULTáNDOSE PARA VOLVER
-0.0458 OCUPADOS POR SEñORAS
-0.0512 OJEDA AHORA VACíA
-0.0792 OJOS FATIGADOS POR
-0.0792 ONCE DOCE TRECE
-0.0378 ORIENTAL CON PERFUME
-0.0669 OTRA VENTANACON LENTO
-0.0458 OTRO LADO DE
-0.0792 OíR A LOS
-0.0969 PADRE DIO COMO
-0.0512 PALMERAS DE INVERNáCULO
-0.0669 PAN TOSTADO HUSMEAR
-0.0792 PAPEL CON LA
-0.0969 PARA ADQUIRIR EL
-0.0969 PARA AUTENTIFICAR TU
-0.0669 PARA EMBADURNAR </s>
-0.0792 PARA NO OíR
-0.0414 PARA REPOSARSE EN
-0.0458 PARA VOLVER A
-0.0792 PARECER JOVEN </s>
-0.0792 PARECíA ANIMAR LA
-0.0792 PARECíA DE GOMA
-0.0669 PARECíA VENIR DEL
-0.0414 PARECíAN RETAZOS DE
-0.0512 PARED A PARED
-0.0512 PARED FORMADA DE
-0.0414 PARRAS ARTIFICIALES CUYAS
-0.0580 PARTE EXTERIOR SE
-0.0512 PASABAN CON LA
-0.0669 PASANDO DE UNA
-0.0580 PASEANTES SIEMPRE </s>
-0.0107 PASOS CONTADOS </s>
-0.0378 PENíNSULAS FORMADOS POR
-0.0792 PEQUEñA DEL MUNDO
-0.0512 PEQUEñOS CRISTALES BISELADOS
-0.0378 PERFUME DE OPIO
-0.0669 PERFUME DEL Té
-0.0458 PERO CON ADORNOS
-0.0792 PERSONA MáS PEQUEñA
-0.0580 PERSONAS CERCANAS A
-0.0669 PERSONAS PARA EMBADURNAR
-0.0458 PERSPECTIVA AL OTRO
-0.0792 PESAR DE PARECER
-0.0580 PIANO DE COLA
-0.0580 PIANO Y LOS
-0.0512 PICTóRICO DE LOS
-0.0792 PILASTRA A PILASTRA
-0.0792 PILASTRA Y EL
-0.0512 PLANOS DE LAS
-0.0512 PLANTAS MáS ALLá
-0.0414 PLENA TARDE PARA
-0.0458 POR CRIADAS COBRIZAS
-0.0580 POR EL REFLEJO
-0.7782 POR LA ESCASEZ
-0.7782 POR LA ESCRITURA
-0.5229 POR LA HUMEDAD
-0.6320 POR LA PARTE
-0.0378 POR LAS RODILLAS
-0.0512 POR LOS CANALIZOS
-0.0792 POR MUCHO MADRUGAR
-0.0458 POR SEñORAS </s>
-0.0580 PRESENTE DE COMPACTAS
-0.0512 PRIMERO DONDE ESTABA
-0.0378 PROMONTORIOS DE LOS
-0.0792 PUEDE DECIR QUE
-0.1249 PUEDES AYUDAR A
-0.0969 PULSA EL BOTóN
-0.1249 PáJARO EN MANO
-0.0512 QUE ADORNABA LOS
-0.0458 QUE CERRABAN LA
-0.1249 QUE CIENTO VOLANDO
-0.0378 QUE EN EL
-0.0414 QUE ENCUADRABAN EL
-0.0580 QUE LOS CAMAREROS
-0.0792 QUE MáS TE
-0.0792 QUE NO A
-0.4150 QUE PARECíA ANIMAR
-0.3358 QUE PARECíA VENIR
-0.0669 QUE SE ACOGíAN
-0.0969 QUE TENER LA
-0.0512 QUE UNA HORA
-0.0792 QUEDABA UN CULíN
-0.0792 QUIéN PUEDE DECIR
-0.1249 QUé ME SUENA
-0.0792 RECIPIENTE CERáMICO DE
-0.0414 RECTáNGULOS DE LAS
-0.0669 RECTáNGULOS LUMINOSOS DE
-0.0107 REDUCIDO CON LOS
-0.0580 REFLEJO AZUL DE
-0.0669 REFLEJO HúMEDO QUE
-0.0378 REGULAR Y ACOMPASADO
-0.0458 REGULARIDAD CASI MECáNICA
-0.0414 REPOSARSE EN LOS
-0.0378 RESPALDOS LOS GOLFOS
-0.1249 RESPLANDOR DE LAS
-0.0414 RETAZOS DE TERCIOPELO
-0.0792 RIGIDEZ DEL JARDíN
-0.0580 RISAS DE MUJERES
-0.0512 ROSA IGUAL A
-0.0458 ROSADAS VENTOSAS DE
-0.0669 RUBIAS DE GERMANOS
-0.0512 RUBIOS DE CORTA
-0.0458 RUBIOS SOSTENIDOS POR
-0.1249 SABOR MUY FUERTE
-0.0792 SALONES AGRANDADOS POR
-0.1249 SALVAR VIDAS </s>
-0.0458 SALóN INMEDIATO BLANCO
-0.0580 SALóN LLEGABAN CONFUNDIDOS
-0.1249 SANGRE PUEDES AYUDAR
-0.0669 SE ACOGíAN GRUPOS
-0.0580 SE DESLIZABAN DE
-0.0792 SE METIó EN
-0.0107 SE MOVIESEN EN
-0.0512 SEDA ROSA IGUAL
-0.0669 SEGUIR EL BURBUJEO
-0.0580 SEGUNDO SALóN LLEGABAN
-0.0580 SEGUíAN SUS CONVERSACIONES
-0.0969 SELLOS MUY CARA
-0.0580 SEMEJANTES A CUERDAS
-0.1249 SESENTA Y NUEVE
-0.0792 SEñALA CON EL
-0.0792 SEñORA ERA MADURILLA
-0.0107 SI SE MOVIESEN
-0.0580 SILENCIOSAS O SEGUíAN
-0.0669 SILLONES DE FLOREADA
-0.0378 SITUACIóN REGULAR Y
-0.0512 SOBRE LA MESA
-0.0512 SOBRE LAS PLANTAS
-0.0669 SOBRE LOS RECTáNGULOS
-0.0580 SOBRE UNA TARIMA
-0.0378 SORTEANDO LOS PROMONTORIOS
-0.0458 SOSTENIDOS POR CRIADAS
-0.0792 SU ALTURA ERAN
-0.0792 SU ESPOSA ERA
-0.1249 SU OíDO </s>
-0.1249 SUBIRLAS A INTERNET
-0.1249 SUENA ESTE NúMERO
-0.0792 SUJETA EL PAPEL
-0.0669 SUS CABEZAS RUBIAS
-0.0580 SUS CONVERSACIONES CON
-0.0458 SUS LABIOS EMPAñáNDOLOS
-0.0792 SUS OJOS FATIGADOS
-0.0669 SUS VIOLINES DESTACáBANSE
-0.1249 SUSURRó ALGO EN
-0.0792 SóLO ME QUEDABA
-0.0378 TABACO ORIENTAL CON
-0.0458 TAMBIéN PERO CON
-0.0512 TAPIZADOS DE SEDA
-0.0414 TARDE PARA REPOSARSE
-0.0580 TARIMA ALREDEDOR DE
-0.0512 TAZA DE OJEDA
-0.0792 TE GUSTE </s>
-0.0580 TECHO COLOREADO A
-0.0580 TECLEOS DEL PIANO
-0.0669 TEMBLABA CON CIERTO
-0.0792 TENDIDOS DE PILASTRA
-0.0969 TENER LA CARTERA
-0.0669 TEñIDAS DE JARABES
-0.1249 TIENEN UN SABOR
-0.0969 TIENES QUE TENER
-0.0512 TODO ESTABA LO
-0.0300 TORNO DE LAS
-0.0669 TOSTADO HUSMEAR EL
-0.0792 TRECE CATORCE Y
-0.0969 TREINTA CUARENTA CINCUENTA
-0.0969 TU USUARIO Y
-0.0458 TURBIOS POR LA
-0.0512 Té HUMEABA EN
-0.0669 Té O SEGUIR
-0.0378 TéRMINO ACOMPAñáNDOLA FIELES
-0.0792 UN ABRIR Y
-0.0792 UN CULíN DE
-0.0414 UN DíA DE
-0.0107 UN ESPACIO REDUCIDO
-0.1249 UN MANTO MUY
-0.0580 UN PIANO DE
-0.0378 UN PéNDULO </s>
-0.0792 UN RECIPIENTE CERáMICO
-0.1249 UN SABOR MUY
-0.0792 UN áNFORA ES
-0.0669 UNA A OTRA
-0.0378 UNA ATMóSFERA DE
-0.0792 UNA BUENA CHULETA
-0.0969 UNA COLECCIóN DE
-0.0669 UNA ESPECIE DE
-0.0792 UNA EVOCACIóN CAMPESTRE
-0.0512 UNA HORA ANTES
-0.0580 UNA TARIMA ALREDEDOR
-0.0512 UNA VIDRIERA DE
-0.0580 UNAS LíNEAS NEGRAS
-0.0414 UNAS PARRAS ARTIFICIALES
-0.0580 UNIFORMADOS LO MISMO
-0.0512 UNIFORME DE LA
-0.1249 UNO DE LOS
-0.0580 UNOS PASEANTES SIEMPRE
-0.0969 UNOS ZAPATOS Y
-0.0969 USUARIO Y CONTRASEñA
-0.0512 VACíA Y BLANQUEABAN
-0.1249 VALE PáJARO EN
-0.0969 VEINTE VEINTIUNO TREINTA
-0.0969 VEINTIUNO TREINTA CUARENTA
-0.1249 VEN AQUí AHORA
-0.0669 VENIR DEL EXTERIOR
-0.0580 VENTANA EN VENTANA
-0.0580 VENTANA LOS BUSTOS
-0.0669 VENTANACON LENTO BALANCEO
-0.0414 VENTANAS QUE ENCUADRABAN
-0.0458 VENTOSAS DE SUS
-0.0458 VER EL SALóN
-0.0792 VERDE AMARILLENTO Y
-0.0512 VERDE CHAROLADO </s>
-0.0512 VERDE PICTóRICO DE
-0.0792 VETE HACIA ADELANTE
-0.0580 VEZ POR EL
-0.0512 VIDRIERA DE PARED
-0.0580 VIOLINES DEL TECHO
-0.0669 VIOLINES DESTACáBANSE SOBRE
-0.0792 VISUAL DE OJEDA
-0.0458 VOLVER A APARECER
-0.0378 Y ACOMPASADO COMO
-0.0512 Y BLANQUEABAN SOBRE
-0.0512 Y BOTONES DORADOS
-0.0792 Y CERRAR DE
-0.0580 Y CHOQUE DE
-0.0969 Y CONTRASEñA PULSA
-0.5229 Y EL FRíO
-0.3010 Y EL VERDE
-0.1249 Y EXCLUSIVO </s>
-0.0669 Y LICORES </s>
-0.3979 Y LOS ARCOS
-0.3310 Y LOS GEMIDOS
-0.0792 Y LUEGO A
-0.0669 Y MERMELADAS EL
-0.1249 Y NUEVE DE
-0.0580 Y OBLICUAS SEMEJANTES
-0.0378 Y PENíNSULAS FORMADOS
-0.0792 Y QUINCE </s>
-0.0378 Y TABACO ORIENTAL
-0.0969 Y UNA COLECCIóN
-0.0792 Y VELLUDO </s>
-0.0969 ZAPATOS Y UNA
-0.0792 áNFORA ES UN
-0.0580 éL FUMABAN SILENCIOSAS
-0.0512 éL MEZCLáBASE A

\end\
